digraph Tree {
node [shape=box, style="filled, rounded", color="black", fontname="helvetica"] ;
graph [ranksep=equally, splines=polyline] ;
edge [fontname="helvetica"] ;
0 [label=<sameCourse &le; 0.5<br/>gini = 0.054<br/>samples = 199352<br/>value = [193802, 5550]>, fillcolor="#e6853f"] ;
1 [label=<Type &le; 91.0<br/>gini = 0.026<br/>samples = 184524<br/>value = [182108, 2416]>, fillcolor="#e5833c"] ;
0 -> 1 [labeldistance=2.5, labelangle=45, headlabel="True"] ;
2 [label=<Designation &le; 91.0<br/>gini = 0.008<br/>samples = 167780<br/>value = [167108, 672]>, fillcolor="#e5823a"] ;
1 -> 2 ;
3 [label=<gini = 0.0<br/>samples = 142424<br/>value = [142424, 0]>, fillcolor="#e58139"] ;
2 -> 3 ;
4 [label=<sameDep &le; 0.5<br/>gini = 0.052<br/>samples = 25356<br/>value = [24684, 672]>, fillcolor="#e6843e"] ;
2 -> 4 ;
5 [label=<gini = 0.0<br/>samples = 19431<br/>value = [19431, 0]>, fillcolor="#e58139"] ;
4 -> 5 ;
6 [label=<sameYr &le; 0.5<br/>gini = 0.201<br/>samples = 5925<br/>value = [5253, 672]>, fillcolor="#e89152"] ;
4 -> 6 ;
7 [label=<gini = 0.0<br/>samples = 4401<br/>value = [4401, 0]>, fillcolor="#e58139"] ;
6 -> 7 ;
8 [label=<sameDeg &le; 0.5<br/>gini = 0.493<br/>samples = 1524<br/>value = [852, 672]>, fillcolor="#fae4d5"] ;
6 -> 8 ;
9 [label=<gini = 0.0<br/>samples = 684<br/>value = [684, 0]>, fillcolor="#e58139"] ;
8 -> 9 ;
10 [label=<Type &le; 72.0<br/>gini = 0.32<br/>samples = 840<br/>value = [168, 672]>, fillcolor="#6ab6ec"] ;
8 -> 10 ;
11 [label=<gini = 0.0<br/>samples = 672<br/>value = [0, 672]>, fillcolor="#399de5"] ;
10 -> 11 ;
12 [label=<gini = 0.0<br/>samples = 168<br/>value = [168, 0]>, fillcolor="#e58139"] ;
10 -> 12 ;
13 [label=<sameDep &le; 0.5<br/>gini = 0.187<br/>samples = 16744<br/>value = [15000, 1744]>, fillcolor="#e89050"] ;
1 -> 13 ;
14 [label=<gini = 0.0<br/>samples = 12672<br/>value = [12672, 0]>, fillcolor="#e58139"] ;
13 -> 14 ;
15 [label=<Post &le; 31.5<br/>gini = 0.49<br/>samples = 4072<br/>value = [2328, 1744]>, fillcolor="#f8dfcd"] ;
13 -> 15 ;
16 [label=<Count=21 gini = 0.0<br/>samples = 1576<br/>value = [0, 1576]>, fillcolor="#399de5"] ;
15 -> 16 ;
17 [label=<sameYr &le; 0.5<br/>gini = 0.126<br/>samples = 2496<br/>value = [2328, 168]>, fillcolor="#e78a47"] ;
15 -> 17 ;
18 [label=<gini = 0.0<br/>samples = 1872<br/>value = [1872, 0]>, fillcolor="#e58139"] ;
17 -> 18 ;
19 [label=<Designation &le; 91.0<br/>gini = 0.393<br/>samples = 624<br/>value = [456, 168]>, fillcolor="#efaf82"] ;
17 -> 19 ;
20 [label=<sameDeg &le; 0.5<br/>gini = 0.497<br/>samples = 312<br/>value = [144, 168]>, fillcolor="#e3f1fb"] ;
19 -> 20 ;
21 [label=<gini = 0.0<br/>samples = 144<br/>value = [144, 0]>, fillcolor="#e58139"] ;
20 -> 21 ;
22 [label=<Count=4 gini = 0.0<br/>samples = 168<br/>value = [0, 168]>, fillcolor="#399de5"] ;
20 -> 22 ;
23 [label=<gini = 0.0<br/>samples = 312<br/>value = [312, 0]>, fillcolor="#e58139"] ;
19 -> 23 ;
24 [label=<sameCourse &le; 1.5<br/>gini = 0.333<br/>samples = 14828<br/>value = [11694, 3134]>, fillcolor="#eca36e"] ;
0 -> 24 [labeldistance=2.5, labelangle=-45, headlabel="False"] ;
25 [label=<Designation &le; 91.0<br/>gini = 0.068<br/>samples = 2740<br/>value = [96.0, 2644.0]>, fillcolor="#40a1e6"] ;
24 -> 25 ;
26 [label=<gini = 0.0<br/>samples = 2452<br/>value = [0, 2452]>, fillcolor="#399de5"] ;
25 -> 26 ;
27 [label=<Type &le; 72.0<br/>gini = 0.444<br/>samples = 288<br/>value = [96, 192]>, fillcolor="#9ccef2"] ;
25 -> 27 ;
28 [label=<Count=60 gini = 0.0<br/>samples = 192<br/>value = [0, 192]>, fillcolor="#399de5"] ;
27 -> 28 ;
29 [label=<gini = 0.0<br/>samples = 96<br/>value = [96, 0]>, fillcolor="#e58139"] ;
27 -> 29 ;
30 [label=<sameDep &le; 0.5<br/>gini = 0.078<br/>samples = 12088<br/>value = [11598, 490]>, fillcolor="#e68641"] ;
24 -> 30 ;
31 [label=<gini = 0.0<br/>samples = 9672<br/>value = [9672, 0]>, fillcolor="#e58139"] ;
30 -> 31 ;
32 [label=<Designation &le; 51.0<br/>gini = 0.323<br/>samples = 2416<br/>value = [1926, 490]>, fillcolor="#eca16b"] ;
30 -> 32 ;
33 [label=<gini = 0.0<br/>samples = 482<br/>value = [0, 482]>, fillcolor="#399de5"] ;
32 -> 33 ;
34 [label=<Type &le; 111.0<br/>gini = 0.008<br/>samples = 1934<br/>value = [1926, 8]>, fillcolor="#e5823a"] ;
32 -> 34 ;
35 [label=<gini = 0.0<br/>samples = 1440<br/>value = [1440, 0]>, fillcolor="#e58139"] ;
34 -> 35 ;
36 [label=<Year_NA &le; 0.5<br/>gini = 0.032<br/>samples = 494<br/>value = [486, 8]>, fillcolor="#e5833c"] ;
34 -> 36 ;
37 [label=<gini = 0.0<br/>samples = 478<br/>value = [478, 0]>, fillcolor="#e58139"] ;
36 -> 37 ;
38 [label=<sameDeg &le; 0.5<br/>gini = 0.5<br/>samples = 16<br/>value = [8, 8]>, fillcolor="#ffffff"] ;
36 -> 38 ;
39 [label=<gini = 0.0<br/>samples = 8<br/>value = [8, 0]>, fillcolor="#e58139"] ;
38 -> 39 ;
40 [label=<gini = 0.0<br/>samples = 8<br/>value = [0, 8]>, fillcolor="#399de5"] ;
38 -> 40 ;
{rank=same ; 0} ;
{rank=same ; 1; 24} ;
{rank=same ; 2; 13; 25; 30} ;
{rank=same ; 4; 15; 27; 32} ;
{rank=same ; 6; 17; 34} ;
{rank=same ; 8; 19; 36} ;
{rank=same ; 10; 20; 38} ;
{rank=same ; 3; 5; 7; 9; 11; 12; 14; 16; 18; 21; 22; 23; 26; 28; 29; 31; 33; 35; 37; 39; 40} ;
}