digraph Tree {
node [shape=box, style="filled, rounded", color="black", fontname="helvetica"] ;
graph [ranksep=equally, splines=polyline] ;
edge [fontname="helvetica"] ;
0 [label=<Experience_level &le; 35.5<br/>gini = 0.4<br/>samples = 1616<br/>value = [1170.0, 446.0]>, fillcolor="#efb184"] ;
1 [label=<DESIGNATION &le; 131.0<br/>gini = 0.208<br/>samples = 1078<br/>value = [951, 127]>, fillcolor="#e89253"] ;
0 -> 1 [labeldistance=2.5, labelangle=45, headlabel="True"] ;
2 [label=<sameProj &le; 0.5<br/>gini = 0.084<br/>samples = 883<br/>value = [844, 39]>, fillcolor="#e68742"] ;
1 -> 2 ;
3 [label=<gini = 0.0<br/>samples = 693<br/>value = [693, 0]>, fillcolor="#e58139"] ;
2 -> 3 ;
4 [label=<Resource_clearance &le; 52.5<br/>gini = 0.326<br/>samples = 190<br/>value = [151, 39]>, fillcolor="#eca26c"] ;
2 -> 4 ;
5 [label=<sameDep &le; 0.5<br/>gini = 0.481<br/>samples = 97<br/>value = [58, 39]>, fillcolor="#f6d6be"] ;
4 -> 5 ;
6 [label=<Resource &le; 111.0<br/>gini = 0.401<br/>samples = 72<br/>value = [52, 20]>, fillcolor="#efb185"] ;
5 -> 6 ;
7 [label=<DESIGNATION &le; 112.0<br/>gini = 0.093<br/>samples = 41<br/>value = [39, 2]>, fillcolor="#e68743"] ;
6 -> 7 ;
8 [label=<Count=1 gini = 0.0<br/>samples = 34<br/>value = [34, 0]>, fillcolor="#e58139"] ;
7 -> 8 ;
9 [label=<Resource &le; 81.0<br/>gini = 0.408<br/>samples = 7<br/>value = [5, 2]>, fillcolor="#efb388"] ;
7 -> 9 ;
10 [label=<gini = 0.0<br/>samples = 5<br/>value = [5, 0]>, fillcolor="#e58139"] ;
9 -> 10 ;
11 [label=<gini = 0.0<br/>samples = 2<br/>value = [0, 2]>, fillcolor="#399de5"] ;
9 -> 11 ;
12 [label=<sameProj &le; 1.5<br/>gini = 0.487<br/>samples = 31<br/>value = [13, 18]>, fillcolor="#c8e4f8"] ;
6 -> 12 ;
13 [label=<Resource &le; 131.0<br/>gini = 0.245<br/>samples = 21<br/>value = [3, 18]>, fillcolor="#5aade9"] ;
12 -> 13 ;
14 [label=<gini = 0.0<br/>samples = 11<br/>value = [0, 11]>, fillcolor="#399de5"] ;
13 -> 14 ;
15 [label=<Resource &le; 151.0<br/>gini = 0.42<br/>samples = 10<br/>value = [3, 7]>, fillcolor="#8ec7f0"] ;
13 -> 15 ;
16 [label=<DESIGNATION &le; 112.0<br/>gini = 0.375<br/>samples = 4<br/>value = [3, 1]>, fillcolor="#eeab7b"] ;
15 -> 16 ;
17 [label=<gini = 0.0<br/>samples = 3<br/>value = [3, 0]>, fillcolor="#e58139"] ;
16 -> 17 ;
18 [label=<gini = 0.0<br/>samples = 1<br/>value = [0, 1]>, fillcolor="#399de5"] ;
16 -> 18 ;
19 [label=<gini = 0.0<br/>samples = 6<br/>value = [0, 6]>, fillcolor="#399de5"] ;
15 -> 19 ;
20 [label=<Count=10 gini = 0.0<br/>samples = 10<br/>value = [10, 0]>, fillcolor="#e58139"] ;
12 -> 20 ;
21 [label=<Resource &le; 31.0<br/>gini = 0.365<br/>samples = 25<br/>value = [6, 19]>, fillcolor="#78bced"] ;
5 -> 21 ;
22 [label=<DESIGNATION &le; 112.0<br/>gini = 0.375<br/>samples = 8<br/>value = [6, 2]>, fillcolor="#eeab7b"] ;
21 -> 22 ;
23 [label=<gini = 0.0<br/>samples = 6<br/>value = [6, 0]>, fillcolor="#e58139"] ;
22 -> 23 ;
24 [label=<gini = 0.0<br/>samples = 2<br/>value = [0, 2]>, fillcolor="#399de5"] ;
22 -> 24 ;
25 [label=<gini = 0.0<br/>samples = 17<br/>value = [0, 17]>, fillcolor="#399de5"] ;
21 -> 25 ;
26 [label=<gini = 0.0<br/>samples = 93<br/>value = [93, 0]>, fillcolor="#e58139"] ;
4 -> 26 ;
27 [label=<Resource_clearance &le; 52.5<br/>gini = 0.495<br/>samples = 195<br/>value = [107.0, 88.0]>, fillcolor="#fae9dc"] ;
1 -> 27 ;
28 [label=<sameProj &le; 1.5<br/>gini = 0.412<br/>samples = 124<br/>value = [36, 88]>, fillcolor="#8ac5f0"] ;
27 -> 28 ;
29 [label=<Resource &le; 71.0<br/>gini = 0.236<br/>samples = 88<br/>value = [12, 76]>, fillcolor="#58ace9"] ;
28 -> 29 ;
30 [label=<Resource &le; 51.0<br/>gini = 0.457<br/>samples = 34<br/>value = [12, 22]>, fillcolor="#a5d2f3"] ;
29 -> 30 ;
31 [label=<gini = 0.0<br/>samples = 22<br/>value = [0, 22]>, fillcolor="#399de5"] ;
30 -> 31 ;
32 [label=<gini = 0.0<br/>samples = 12<br/>value = [12, 0]>, fillcolor="#e58139"] ;
30 -> 32 ;
33 [label=<gini = 0.0<br/>samples = 54<br/>value = [0, 54]>, fillcolor="#399de5"] ;
29 -> 33 ;
34 [label=<sameDep &le; 0.5<br/>gini = 0.444<br/>samples = 36<br/>value = [24, 12]>, fillcolor="#f2c09c"] ;
28 -> 34 ;
35 [label=<Count=6 gini = 0.0<br/>samples = 21<br/>value = [21, 0]>, fillcolor="#e58139"] ;
34 -> 35 ;
36 [label=<DESIGNATION &le; 171.0<br/>gini = 0.32<br/>samples = 15<br/>value = [3, 12]>, fillcolor="#6ab6ec"] ;
34 -> 36 ;
37 [label=<gini = 0.0<br/>samples = 7<br/>value = [0, 7]>, fillcolor="#399de5"] ;
36 -> 37 ;
38 [label=<Resource &le; 141.0<br/>gini = 0.469<br/>samples = 8<br/>value = [3, 5]>, fillcolor="#b0d8f5"] ;
36 -> 38 ;
39 [label=<Resource &le; 111.0<br/>gini = 0.375<br/>samples = 4<br/>value = [3, 1]>, fillcolor="#eeab7b"] ;
38 -> 39 ;
40 [label=<DESIGNATION &le; 191.0<br/>gini = 0.5<br/>samples = 2<br/>value = [1, 1]>, fillcolor="#ffffff"] ;
39 -> 40 ;
41 [label=<gini = 0.0<br/>samples = 1<br/>value = [0, 1]>, fillcolor="#399de5"] ;
40 -> 41 ;
42 [label=<gini = 0.0<br/>samples = 1<br/>value = [1, 0]>, fillcolor="#e58139"] ;
40 -> 42 ;
43 [label=<gini = 0.0<br/>samples = 2<br/>value = [2, 0]>, fillcolor="#e58139"] ;
39 -> 43 ;
44 [label=<gini = 0.0<br/>samples = 4<br/>value = [0, 4]>, fillcolor="#399de5"] ;
38 -> 44 ;
45 [label=<gini = 0.0<br/>samples = 71<br/>value = [71, 0]>, fillcolor="#e58139"] ;
27 -> 45 ;
46 [label=<Experience_level &le; 36.5<br/>gini = 0.483<br/>samples = 538<br/>value = [219, 319]>, fillcolor="#c1e0f7"] ;
0 -> 46 [labeldistance=2.5, labelangle=-45, headlabel="False"] ;
47 [label=<DESIGNATION &le; 51.0<br/>gini = 0.161<br/>samples = 272<br/>value = [24, 248]>, fillcolor="#4ca6e8"] ;
46 -> 47 ;
48 [label=<DESIGNATION &le; 31.0<br/>gini = 0.375<br/>samples = 96<br/>value = [24, 72]>, fillcolor="#7bbeee"] ;
47 -> 48 ;
49 [label=<gini = 0.0<br/>samples = 48<br/>value = [0, 48]>, fillcolor="#399de5"] ;
48 -> 49 ;
50 [label=<Resource &le; 71.0<br/>gini = 0.5<br/>samples = 48<br/>value = [24, 24]>, fillcolor="#ffffff"] ;
48 -> 50 ;
51 [label=<gini = 0.0<br/>samples = 18<br/>value = [18, 0]>, fillcolor="#e58139"] ;
50 -> 51 ;
52 [label=<Resource &le; 131.0<br/>gini = 0.32<br/>samples = 30<br/>value = [6, 24]>, fillcolor="#6ab6ec"] ;
50 -> 52 ;
53 [label=<gini = 0.0<br/>samples = 18<br/>value = [0, 18]>, fillcolor="#399de5"] ;
52 -> 53 ;
54 [label=<Resource &le; 151.0<br/>gini = 0.5<br/>samples = 12<br/>value = [6, 6]>, fillcolor="#ffffff"] ;
52 -> 54 ;
55 [label=<gini = 0.0<br/>samples = 6<br/>value = [6, 0]>, fillcolor="#e58139"] ;
54 -> 55 ;
56 [label=<gini = 0.0<br/>samples = 6<br/>value = [0, 6]>, fillcolor="#399de5"] ;
54 -> 56 ;
57 [label=<gini = 0.0<br/>samples = 176<br/>value = [0, 176]>, fillcolor="#399de5"] ;
47 -> 57 ;
58 [label=<Resource_clearance &le; 53.5<br/>gini = 0.391<br/>samples = 266<br/>value = [195, 71]>, fillcolor="#eeaf81"] ;
46 -> 58 ;
59 [label=<gini = 0.0<br/>samples = 71<br/>value = [0, 71]>, fillcolor="#399de5"] ;
58 -> 59 ;
60 [label=<gini = 0.0<br/>samples = 195<br/>value = [195, 0]>, fillcolor="#e58139"] ;
58 -> 60 ;
{rank=same ; 0} ;
{rank=same ; 1; 46} ;
{rank=same ; 2; 27; 47; 58} ;
{rank=same ; 4; 28; 48} ;
{rank=same ; 5; 29; 34; 50} ;
{rank=same ; 6; 21; 30; 36; 52} ;
{rank=same ; 7; 12; 22; 38; 54} ;
{rank=same ; 9; 13; 39} ;
{rank=same ; 15; 40} ;
{rank=same ; 16} ;
{rank=same ; 3; 8; 10; 11; 14; 17; 18; 19; 20; 23; 24; 25; 26; 31; 32; 33; 35; 37; 41; 42; 43; 44; 45; 49; 51; 53; 55; 56; 57; 59; 60} ;
}